{
  "metadata": {
    "version": "1.0.0",
    "trained_at": "2025-11-21T20:55:50.803167+00:00",
    "accuracy": 0.7931623931623931,
    "num_examples": 131,
    "vocabulary_size": 138,
    "num_features": 138
  },
  "tfidf": {
    "vocabulary": {
      "fix": 59,
      "in": 73,
      "update": 129,
      "version": 133,
      "auth": 22,
      "add": 3,
      "to": 127,
      "variable": 132,
      "import": 72,
      "error": 53,
      "delete": 48,
      "file": 57,
      "implement": 69,
      "user": 130,
      "authentication": 23,
      "system": 116,
      "authentication system": 24,
      "integration": 76,
      "with": 136,
      "and": 15,
      "github": 67,
      "refactor": 103,
      "database": 45,
      "layer": 78,
      "pattern": 94,
      "setup": 112,
      "ci": 31,
      "setup ci": 113,
      "migrate": 84,
      "from": 63,
      "search": 111,
      "functionality": 65,
      "create": 37,
      "admin": 10,
      "dashboard": 43,
      "analytics": 13,
      "create admin": 38,
      "caching": 30,
      "support": 114,
      "for": 62,
      "support for": 115,
      "api": 19,
      "full": 64,
      "operations": 92,
      "configuration": 34,
      "payment": 95,
      "processing": 98,
      "role": 106,
      "based": 26,
      "access": 0,
      "control": 36,
      "role based": 107,
      "based access": 27,
      "access control": 1,
      "role based access": 108,
      "based access control": 28,
      "notifications": 91,
      "monitoring": 88,
      "across": 2,
      "all": 12,
      "first": 58,
      "tests": 118,
      "then": 120,
      "the": 119,
      "then refactor": 126,
      "analyze": 14,
      "current": 41,
      "flow": 61,
      "migration": 85,
      "script": 110,
      "schema": 109,
      "and then": 16,
      "best": 29,
      "logging": 81,
      "then implement": 125,
      "and then implement": 18,
      "configure": 35,
      "write": 137,
      "feature": 55,
      "implement feature": 71,
      "audit": 21,
      "issues": 77,
      "plan": 97,
      "then create": 122,
      "performance": 96,
      "optimize": 93,
      "generate": 66,
      "migrations": 86,
      "then generate": 124,
      "review": 105,
      "then add": 121,
      "and then add": 17,
      "profile": 99,
      "memory": 82,
      "then fix": 123,
      "environment": 52,
      "add logging": 5,
      "validation": 131,
      "add validation": 9,
      "new": 90,
      "ui": 128,
      "indexes": 74,
      "after": 11,
      "queries": 100,
      "database indexes": 46,
      "indexes after": 75,
      "database indexes after": 47,
      "documentation": 49,
      "client": 32,
      "api documentation": 20,
      "rate": 101,
      "limiting": 80,
      "rate limiting": 102,
      "data": 44,
      "handling": 68,
      "middleware": 83,
      "error handling": 54,
      "testing": 117,
      "add new": 6,
      "request": 104,
      "email": 50,
      "multi": 89,
      "fix all": 60,
      "features": 56,
      "backup": 25,
      "mode": 87,
      "webhook": 135,
      "custom": 42,
      "create custom": 39,
      "endpoints": 51,
      "add support": 7,
      "add support for": 8,
      "create database": 40,
      "implement data": 70,
      "versioning": 134,
      "comprehensive": 33,
      "add comprehensive": 4,
      "library": 79
    },
    "idf_weights": [
      4.7841896339182615,
      4.7841896339182615,
      4.7841896339182615,
      2.2718840099421467,
      4.7841896339182615,
      4.7841896339182615,
      4.7841896339182615,
      4.49650756146648,
      4.49650756146648,
      4.7841896339182615,
      4.7841896339182615,
      4.7841896339182615,
      4.273364010152271,
      4.7841896339182615,
      4.273364010152271,
      2.791759469228055,
      3.049588578530155,
      4.49650756146648,
      4.7841896339182615,
      3.3978952727983707,
      4.7841896339182615,
      4.7841896339182615,
      4.273364010152271,
      4.49650756146648,
      4.7841896339182615,
      4.7841896339182615,
      4.7841896339182615,
      4.7841896339182615,
      4.7841896339182615,
      4.7841896339182615,
      4.49650756146648,
      4.7841896339182615,
      4.49650756146648,
      4.7841896339182615,
      4.7841896339182615,
      4.7841896339182615,
      4.7841896339182615,
      2.6639260977181705,
      4.7841896339182615,
      4.7841896339182615,
      4.7841896339182615,
      4.49650756146648,
      4.273364010152271,
      4.7841896339182615,
      4.273364010152271,
      3.6855773452501515,
      4.7841896339182615,
      4.7841896339182615,
      4.7841896339182615,
      4.49650756146648,
      4.7841896339182615,
      4.7841896339182615,
      4.7841896339182615,
      4.091042453358316,
      4.7841896339182615,
      3.9368917735310576,
      4.7841896339182615,
      4.7841896339182615,
      4.091042453358316,
      3.580216829592325,
      4.7841896339182615,
      4.7841896339182615,
      3.3978952727983707,
      4.49650756146648,
      4.7841896339182615,
      4.7841896339182615,
      4.7841896339182615,
      4.7841896339182615,
      4.7841896339182615,
      2.4170660197866445,
      4.7841896339182615,
      4.49650756146648,
      4.7841896339182615,
      4.091042453358316,
      4.7841896339182615,
      4.7841896339182615,
      4.7841896339182615,
      4.7841896339182615,
      4.7841896339182615,
      4.7841896339182615,
      4.7841896339182615,
      4.091042453358316,
      4.7841896339182615,
      4.7841896339182615,
      4.7841896339182615,
      4.7841896339182615,
      4.49650756146648,
      4.7841896339182615,
      4.7841896339182615,
      4.7841896339182615,
      4.49650756146648,
      4.7841896339182615,
      4.7841896339182615,
      4.49650756146648,
      4.7841896339182615,
      4.7841896339182615,
      4.7841896339182615,
      4.7841896339182615,
      4.7841896339182615,
      4.7841896339182615,
      4.7841896339182615,
      4.7841896339182615,
      4.7841896339182615,
      4.273364010152271,
      4.49650756146648,
      4.7841896339182615,
      4.7841896339182615,
      4.7841896339182615,
      4.7841896339182615,
      4.7841896339182615,
      4.7841896339182615,
      4.7841896339182615,
      3.6855773452501515,
      4.7841896339182615,
      3.6855773452501515,
      4.273364010152271,
      4.091042453358316,
      4.49650756146648,
      3.9368917735310576,
      4.49650756146648,
      2.4488147181012243,
      4.273364010152271,
      4.7841896339182615,
      4.7841896339182615,
      4.7841896339182615,
      4.273364010152271,
      4.7841896339182615,
      2.992430164690206,
      4.7841896339182615,
      4.273364010152271,
      4.091042453358316,
      4.7841896339182615,
      4.7841896339182615,
      4.49650756146648,
      4.7841896339182615,
      4.7841896339182615,
      3.243744592971112,
      4.091042453358316
    ]
  },
  "classifier": {
    "coefficients": [[-0.07665598632657877,-0.07665598632657877,-0.14905949334969418,-0.02411844013029945,-0.15831338094666098,-0.12612772242442555,0.5431727555055532,-0.15619311166872885,-0.15619311166872885,0.2470353492628346,-0.12188508936605208,-0.19706598703982292,-0.3360923688276573,-0.1249097043329024,-0.29648136529953045,-0.7423972217841759,-0.6457250307237126,-0.17603162563595387,-0.08007554318573584,-0.39373987225705304,0.32000308575040515,-0.19879290937174016,0.7576728690942867,-0.15129694833654087,-0.07690513377789447,0.2030580183596668,-0.07665598632657877,-0.07665598632657877,-0.07665598632657877,-0.18373676193346916,-0.1407418838301259,-0.10460575772390322,-0.20479672972743612,-0.15831338094666098,0.33376466314954073,-0.2733135519452894,-0.07665598632657877,-0.12507154066692308,-0.12188508936605208,-0.13708131145527072,0.33288849939096404,-0.2678132197416989,-0.23265732135305028,-0.1249097043329024,-0.2822826765174701,-0.2805351738350684,-0.19706598703982292,-0.19706598703982292,0.39759534914377004,0.2502514853151604,0.19440024852013216,-0.21471458019698655,0.13353072125349622,0.05852717748788265,-0.13158847136011054,-0.12148932517964131,-0.1503279653409793,0.4244943149299129,-0.3043501628893605,0.7580458273453381,-0.1589218427067563,-0.2904779577870793,-0.25351279198640325,-0.35693366087854395,-0.12963606013911413,-0.13025829152543528,-0.1496733293879026,-0.11929967645449718,-0.13158847136011054,-1.1010733126438064,-0.1228098140660336,-0.19607938106078338,0.5697328649801696,0.664478950579383,-0.19706598703982292,-0.19706598703982292,-0.13789467373855355,-0.21114017017842351,-0.15254152764734372,-0.3052671261122544,-0.17208152892156955,-0.2576674631208339,-0.3857531225195347,-0.11921713403252203,-0.27756633035448036,-0.21788860094543455,-0.38091213927273254,-0.18351661526387508,-0.1321180084810241,-0.12868483878043427,0.4061119736484429,-0.2300265818758638,-0.19316508713323177,-0.21726461415893292,-0.18818828266736695,-0.1019226423882278,-0.16317317843838522,-0.19316793442507207,-0.14182970463090033,0.10839094311645722,-0.1830293409873007,-0.17208152892156955,-0.17208152892156955,-0.3135936881833203,0.3401589075077645,0.4561460931736889,-0.07665598632657877,-0.07665598632657877,-0.07665598632657877,-0.18787332411100183,0.329454682535132,-0.14324681078230236,-0.6116140813122515,-0.10460575772390322,-0.49066833094001816,-0.2048126238836802,-0.33290675160726324,-0.26254926861217903,0.5599709021720443,-0.2485189013261455,-1.2999197684353747,-0.23738693857225474,-0.19316793442507207,-0.24759551443637126,-0.1496733293879026,-0.21544275924795173,-0.17600025640535563,1.1368564852765048,-0.2199897584955845,0.795685923989979,-0.014850173120347504,0.2470353492628346,0.6221920488139824,0.7829189105418061,-0.1842510067741801,-0.14907083205018418,-0.4891431204662872,0.12414029614080499],[0.13103830902351166,0.13103830902351166,0.268970840721685,0.3639899431061048,0.05813655300032743,-0.20665366274214686,-0.3022883532582199,0.2287046719056478,0.2287046719056478,-0.2874176408060622,0.2069663690246536,-0.21811613938064903,0.15804991998824608,0.20471360995076773,-0.01623353389067496,-0.2598597905312852,-0.7140599242578446,-0.19119264996273944,-0.11005210988787145,0.31643206643954624,-0.2833255965782735,0.07382838733404416,-0.6547987144964381,0.28890382238546675,0.1438473796995955,-0.38035476518205014,0.13103830902351166,0.13103830902351166,0.13103830902351166,-0.2345233770088889,0.28664908437985165,-0.013769956956785309,0.18999874439321718,0.05813655300032743,-0.027867500946471342,0.11531225040318742,0.13103830902351166,0.2716140869561041,0.2069663690246536,0.2224074385812536,-0.3022394218489246,-0.23722059289165986,0.37872120872393006,0.20471360995076773,0.23548798731980483,-0.3211237888318205,-0.21811613938064903,-0.21811613938064903,-0.1697046527163999,-0.3243240442066068,-0.025406150760648283,0.31553074139734655,-0.30865826011791,-0.08100848979562547,0.07171455104115088,-0.2916480300311109,0.10212865907163762,-0.2265225366199925,-0.35435824383295994,-0.7829593062223207,-0.14087449426721926,0.14477151137008354,0.6629304026124341,0.48766437797122014,0.22576899096434835,0.22551875279125685,-0.14114341222209184,0.24707644003142828,0.07171455104115088,1.2095443215159354,0.24393032692899902,-0.22859739822674238,-0.3153927593010687,-0.13102238194228114,-0.21811613938064903,-0.21811613938064903,0.07156393252438278,-0.17259900443538326,0.25613456892961295,0.4241186290832312,-0.014717838853075626,0.004729665651426725,0.1852754207728159,0.029690412983777833,0.3690220921564645,0.07589654542980638,-0.35783865327897363,0.08718872585938206,-0.0025096002895328537,0.23744505974857072,-0.41607861805653956,0.3452091085110442,0.28217125192118403,0.348098270839926,0.3310966582094208,0.18284298298906781,-0.1738482750700334,-0.16472374409262358,0.24056310652254664,-0.25553905073427563,0.09005954485946333,-0.014717838853075626,-0.014717838853075626,-0.05392842286788598,-0.057460437334883006,-0.3911124104805225,0.13103830902351166,0.13103830902351166,0.13103830902351166,-0.14776787200072505,-0.27752517415706923,0.23518259377961356,0.24578320130611683,-0.013769956956785309,0.7542698448327818,0.3064193298736522,0.5740893475479807,0.2709037286777925,-0.4359110418893959,-0.03396782638279095,-1.5262279474841014,-0.33648157042941884,-0.16472374409262358,-0.17650680739772906,-0.14114341222209184,-0.3737998503945088,-0.1720447796161797,-0.27774350547250876,0.01538032647747278,-0.5822102264114588,-0.04181739197406267,-0.2874176408060622,-0.3911763361316117,-0.5433332359720846,0.33120390069851696,0.250574717864133,0.9542777565937397,-0.38793187835507686],[-0.0543823226969328,-0.0543823226969328,-0.11991134737199091,-0.3398715029758053,0.10017682794633355,0.3327813851665725,-0.24088440224733332,-0.07251156023691893,-0.07251156023691893,0.04038229154322764,-0.0850812796586015,0.415182126420472,0.17804244883941112,-0.07980390561786531,0.3127148991902055,1.0022570123154613,1.359784954981557,0.36722427559869336,0.1901276530736073,0.07730780581750687,-0.03667748917213149,0.12496452203769602,-0.10287415459784868,-0.1376068740489258,-0.06694224592170096,0.17729674682238328,-0.0543823226969328,-0.0543823226969328,-0.0543823226969328,0.4182601389423581,-0.1459072005497258,0.11837571468068854,0.014797985334218883,0.10017682794633355,-0.3058971622030695,0.15800130154210196,-0.0543823226969328,-0.14654254628918068,-0.0850812796586015,-0.08532612712598292,-0.030649077542039455,0.5050338126333588,-0.14606388737087983,-0.07980390561786531,0.04679468919766534,0.6016589626668889,0.415182126420472,0.415182126420472,-0.2278906964273701,0.0740725588914465,-0.16899409775948382,-0.10081616120036006,0.17512753886441376,0.022481312307742862,0.059873920318959634,0.4131373552107522,0.04819930626934172,-0.19797177830992033,0.6587084067223203,0.024913478876982777,0.29979633697397545,0.1457064464169957,-0.4094176106260307,-0.1307307170926762,-0.09613293082523423,-0.09526046126582165,0.2908167416099945,-0.12777676357693113,0.059873920318959634,-0.10847100887212895,-0.12112051286296542,0.4246767792875257,-0.2543401056791009,-0.5334565686371016,0.415182126420472,0.415182126420472,0.06633074121417072,0.38373917461380674,-0.10359304128226926,-0.11885150297097677,0.1867993677746452,0.2529377974694072,0.20047770174671894,0.08952672104874417,-0.09145576180198418,0.14199205551562818,0.7387507925517062,0.09632788940449308,0.13462760877055702,-0.10876022096813648,0.009966644408096534,-0.1151825266351804,-0.08900616478795224,-0.13083365668099312,-0.14290837554205388,-0.08092034060084002,0.3370214535084185,0.35789167851769565,-0.09873340189164635,0.14714810761781852,0.0929697961278374,0.1867993677746452,0.1867993677746452,0.36752211105120636,-0.2826984701728815,-0.06503368269316631,-0.0543823226969328,-0.0543823226969328,-0.0543823226969328,0.33564119611172694,-0.05192950837806275,-0.09193578299731127,0.36583088000613473,0.11837571468068854,-0.2636015138927638,-0.10160670598997203,-0.24118259594071734,-0.008354460065613495,-0.12405986028264872,0.2824867277089364,2.826147715919477,0.5738685090016735,0.35789167851769565,0.42410232183410035,0.2908167416099945,0.5892426096424604,0.3480450360215353,-0.8591129798039964,0.20460943201811163,-0.2134756975785204,0.056667565094410254,0.04038229154322764,-0.2310157126823707,-0.23958567456972132,-0.14695289392433689,-0.10150388581394874,-0.46513463612745287,0.26379158221427185]],
    "intercepts": [0.16200170377729348,0.22062507520678987,-0.3826267789840828],
    "classes": ["simple","complex","multistep"]
  }
}